<?xml version="1.0"?>
<opencv_storage>
<cascade>
  <stageType>BOOST</stageType>
  <featureType>HAAR</featureType>
  <height>18</height>
  <width>32</width>
  <stageParams>
    <boostType>GAB</boostType>
    <minHitRate>9.9900001287460327e-01</minHitRate>
    <maxFalseAlarm>5.0000000000000000e-01</maxFalseAlarm>
    <weightTrimRate>9.4999999999999996e-01</weightTrimRate>
    <maxDepth>1</maxDepth>
    <maxWeakCount>100</maxWeakCount></stageParams>
  <featureParams>
    <maxCatCount>0</maxCatCount>
    <featSize>1</featSize>
    <mode>ALL</mode></featureParams>
  <stageNum>16</stageNum>
  <stages>
    <!-- stage 0 -->
    <_>
      <maxWeakCount>3</maxWeakCount>
      <stageThreshold>-9.1535782814025879e-01</stageThreshold>
      <weakClassifiers>
        <_>
          <internalNodes>
            0 -1 21 2.3360596969723701e-02</internalNodes>
          <leafValues>
            -9.4612795114517212e-01 9.7514498233795166e-01</leafValues></_>
        <_>
          <internalNodes>
            0 -1 58 1.3189690187573433e-02</internalNodes>
          <leafValues>
            -8.1971091032028198e-01 9.2870652675628662e-01</leafValues></_>
        <_>
          <internalNodes>
            0 -1 20 6.5884012728929520e-03</internalNodes>
          <leafValues>
            -9.4955772161483765e-01 8.5048103332519531e-01</leafValues></_></weakClassifiers></_>
    <!-- stage 1 -->
    <_>
      <maxWeakCount>4</maxWeakCount>
      <stageThreshold>-1.3024508953094482e+00</stageThreshold>
      <weakClassifiers>
        <_>
          <internalNodes>
            0 -1 16 1.0028107464313507e-01</internalNodes>
          <leafValues>
            -7.7272725105285645e-01 9.4816052913665771e-01</leafValues></_>
        <_>
          <internalNodes>
            0 -1 82 -9.7637269645929337e-03</internalNodes>
          <leafValues>
            9.4008165597915649e-01 -5.5442595481872559e-01</leafValues></_>
        <_>
          <internalNodes>
            0 -1 26 -5.2212211303412914e-03</internalNodes>
          <leafValues>
            8.4649705886840820e-01 -6.5706515312194824e-01</leafValues></_>
        <_>
          <internalNodes>
            0 -1 66 -2.0523898303508759e-02</internalNodes>
          <leafValues>
            6.8176752328872681e-01 -9.3417555093765259e-01</leafValues></_></weakClassifiers></_>
    <!-- stage 2 -->
    <_>
      <maxWeakCount>5</maxWeakCount>
      <stageThreshold>-6.2727576494216919e-01</stageThreshold>
      <weakClassifiers>
        <_>
          <internalNodes>
            0 -1 18 7.3548816144466400e-03</internalNodes>
          <leafValues>
            -8.1467181444168091e-01 8.8915663957595825e-01</leafValues></_>
        <_>
          <internalNodes>
            0 -1 81 -1.0425858199596405e-02</internalNodes>
          <leafValues>
            8.7368398904800415e-01 -6.0838794708251953e-01</leafValues></_>
        <_>
          <internalNodes>
            0 -1 78 1.4181777834892273e-02</internalNodes>
          <leafValues>
            -6.5733122825622559e-01 7.9012596607208252e-01</leafValues></_>
        <_>
          <internalNodes>
            0 -1 27 -5.6624142453074455e-03</internalNodes>
          <leafValues>
            7.1782070398330688e-01 -7.5999981164932251e-01</leafValues></_>
        <_>
          <internalNodes>
            0 -1 1 -1.1181037873029709e-02</internalNodes>
          <leafValues>
            7.6565784215927124e-01 -5.4506778717041016e-01</leafValues></_></weakClassifiers></_>
    <!-- stage 3 -->
    <_>
      <maxWeakCount>6</maxWeakCount>
      <stageThreshold>-9.0931111574172974e-01</stageThreshold>
      <weakClassifiers>
        <_>
          <internalNodes>
            0 -1 88 -7.1782250888645649e-03</internalNodes>
          <leafValues>
            8.1944441795349121e-01 -7.9807692766189575e-01</leafValues></_>
        <_>
          <internalNodes>
            0 -1 40 -1.2118294835090637e-02</internalNodes>
          <leafValues>
            7.6484084129333496e-01 -6.7884200811386108e-01</leafValues></_>
        <_>
          <internalNodes>
            0 -1 26 -7.3119858279824257e-03</internalNodes>
          <leafValues>
            7.0349270105361938e-01 -6.9745039939880371e-01</leafValues></_>
        <_>
          <internalNodes>
            0 -1 71 5.2255904302000999e-03</internalNodes>
          <leafValues>
            -7.5577533245086670e-01 5.4683339595794678e-01</leafValues></_>
        <_>
          <internalNodes>
            0 -1 43 -5.2518362645059824e-04</internalNodes>
          <leafValues>
            -9.2187452316284180e-01 3.2464808225631714e-01</leafValues></_>
        <_>
          <internalNodes>
            0 -1 87 -2.3229122161865234e-02</internalNodes>
          <leafValues>
            3.9357674121856689e-01 -8.3430677652359009e-01</leafValues></_></weakClassifiers></_>
    <!-- stage 4 -->
    <_>
      <maxWeakCount>6</maxWeakCount>
      <stageThreshold>-4.6143290400505066e-01</stageThreshold>
      <weakClassifiers>
        <_>
          <internalNodes>
            0 -1 67 8.4874127060174942e-03</internalNodes>
          <leafValues>
            -6.5106385946273804e-01 8.2663512229919434e-01</leafValues></_>
        <_>
          <internalNodes>
            0 -1 90 -1.0764846578240395e-02</internalNodes>
          <leafValues>
            8.1572860479354858e-01 -5.5585086345672607e-01</leafValues></_>
        <_>
          <internalNodes>
            0 -1 13 2.7892505750060081e-02</internalNodes>
          <leafValues>
            -5.7624489068984985e-01 7.0081639289855957e-01</leafValues></_>
        <_>
          <internalNodes>
            0 -1 3 -2.3836665786802769e-03</internalNodes>
          <leafValues>
            6.4743661880493164e-01 -5.6561434268951416e-01</leafValues></_>
        <_>
          <internalNodes>
            0 -1 74 -4.9803743604570627e-04</internalNodes>
          <leafValues>
            -9.7144794464111328e-01 3.6706757545471191e-01</leafValues></_>
        <_>
          <internalNodes>
            0 -1 55 1.0386640205979347e-03</internalNodes>
          <leafValues>
            3.0722245573997498e-01 -9.7612851858139038e-01</leafValues></_></weakClassifiers></_>
    <!-- stage 5 -->
    <_>
      <maxWeakCount>4</maxWeakCount>
      <stageThreshold>-2.9465597867965698e-01</stageThreshold>
      <weakClassifiers>
        <_>
          <internalNodes>
            0 -1 40 -5.9453537687659264e-03</internalNodes>
          <leafValues>
            8.2045274972915649e-01 -6.9506728649139404e-01</leafValues></_>
        <_>
          <internalNodes>
            0 -1 31 8.9951707050204277e-03</internalNodes>
          <leafValues>
            -5.2715778350830078e-01 7.3252654075622559e-01</leafValues></_>
        <_>
          <internalNodes>
            0 -1 52 2.4961181916296482e-03</internalNodes>
          <leafValues>
            3.9799559116363525e-01 -9.7362917661666870e-01</leafValues></_>
        <_>
          <internalNodes>
            0 -1 89 -3.2296530902385712e-02</internalNodes>
          <leafValues>
            5.2957344055175781e-01 -6.0205805301666260e-01</leafValues></_></weakClassifiers></_>
    <!-- stage 6 -->
    <_>
      <maxWeakCount>5</maxWeakCount>
      <stageThreshold>-7.9648572206497192e-01</stageThreshold>
      <weakClassifiers>
        <_>
          <internalNodes>
            0 -1 34 1.4775343239307404e-02</internalNodes>
          <leafValues>
            -5.6962025165557861e-01 8.1373322010040283e-01</leafValues></_>
        <_>
          <internalNodes>
            0 -1 51 5.2121374756097794e-04</internalNodes>
          <leafValues>
            5.6037712097167969e-01 -8.7156754732131958e-01</leafValues></_>
        <_>
          <internalNodes>
            0 -1 48 -4.8091981559991837e-02</internalNodes>
          <leafValues>
            7.2984856367111206e-01 -4.3682101368904114e-01</leafValues></_>
        <_>
          <internalNodes>
            0 -1 77 3.1959787011146545e-03</internalNodes>
          <leafValues>
            -6.0781294107437134e-01 5.2485269308090210e-01</leafValues></_>
        <_>
          <internalNodes>
            0 -1 23 7.2282762266695499e-03</internalNodes>
          <leafValues>
            -8.9912176132202148e-01 3.0598253011703491e-01</leafValues></_></weakClassifiers></_>
    <!-- stage 7 -->
    <_>
      <maxWeakCount>4</maxWeakCount>
      <stageThreshold>-4.2923745512962341e-01</stageThreshold>
      <weakClassifiers>
        <_>
          <internalNodes>
            0 -1 30 -5.6192665360867977e-03</internalNodes>
          <leafValues>
            -8.9473682641983032e-01 7.6331359148025513e-01</leafValues></_>
        <_>
          <internalNodes>
            0 -1 19 1.6586231067776680e-02</internalNodes>
          <leafValues>
            -5.7002413272857666e-01 7.2644174098968506e-01</leafValues></_>
        <_>
          <internalNodes>
            0 -1 45 2.0093552302569151e-03</internalNodes>
          <leafValues>
            3.8879123330116272e-01 -9.5564484596252441e-01</leafValues></_>
        <_>
          <internalNodes>
            0 -1 56 2.5758208721526898e-05</internalNodes>
          <leafValues>
            -8.5960966348648071e-01 3.3311787247657776e-01</leafValues></_></weakClassifiers></_>
    <!-- stage 8 -->
    <_>
      <maxWeakCount>7</maxWeakCount>
      <stageThreshold>-8.6465054750442505e-01</stageThreshold>
      <weakClassifiers>
        <_>
          <internalNodes>
            0 -1 76 7.7799903228878975e-03</internalNodes>
          <leafValues>
            -8.0124223232269287e-01 7.6321667432785034e-01</leafValues></_>
        <_>
          <internalNodes>
            0 -1 25 3.2534082420170307e-03</internalNodes>
          <leafValues>
            -4.3897792696952820e-01 7.4570125341415405e-01</leafValues></_>
        <_>
          <internalNodes>
            0 -1 69 -1.9139363430440426e-03</internalNodes>
          <leafValues>
            5.5268704891204834e-01 -6.7778927087783813e-01</leafValues></_>
        <_>
          <internalNodes>
            0 -1 81 -1.2852165848016739e-02</internalNodes>
          <leafValues>
            5.4275214672088623e-01 -6.1006295680999756e-01</leafValues></_>
        <_>
          <internalNodes>
            0 -1 65 4.3538282625377178e-04</internalNodes>
          <leafValues>
            3.7688386440277100e-01 -9.6281719207763672e-01</leafValues></_>
        <_>
          <internalNodes>
            0 -1 17 3.5714693367481232e-03</internalNodes>
          <leafValues>
            -5.6964999437332153e-01 4.4908198714256287e-01</leafValues></_>
        <_>
          <internalNodes>
            0 -1 60 2.7112422976642847e-03</internalNodes>
          <leafValues>
            -3.9302033185958862e-01 7.8311115503311157e-01</leafValues></_></weakClassifiers></_>
    <!-- stage 9 -->
    <_>
      <maxWeakCount>7</maxWeakCount>
      <stageThreshold>-9.7634404897689819e-01</stageThreshold>
      <weakClassifiers>
        <_>
          <internalNodes>
            0 -1 44 -1.7908846493810415e-03</internalNodes>
          <leafValues>
            -9.4160586595535278e-01 7.4981713294982910e-01</leafValues></_>
        <_>
          <internalNodes>
            0 -1 35 -9.3397330492734909e-03</internalNodes>
          <leafValues>
            4.9768269062042236e-01 -8.7455779314041138e-01</leafValues></_>
        <_>
          <internalNodes>
            0 -1 12 5.2278626710176468e-02</internalNodes>
          <leafValues>
            -7.2094601392745972e-01 4.8387888073921204e-01</leafValues></_>
        <_>
          <internalNodes>
            0 -1 9 -3.7629522383213043e-02</internalNodes>
          <leafValues>
            7.9891979694366455e-01 -3.9487531781196594e-01</leafValues></_>
        <_>
          <internalNodes>
            0 -1 63 7.5492833275347948e-05</internalNodes>
          <leafValues>
            -7.7945095300674438e-01 3.9940094947814941e-01</leafValues></_>
        <_>
          <internalNodes>
            0 -1 8 2.1060719154775143e-03</internalNodes>
          <leafValues>
            -4.4823390245437622e-01 6.5490019321441650e-01</leafValues></_>
        <_>
          <internalNodes>
            0 -1 47 4.1161579429171979e-04</internalNodes>
          <leafValues>
            3.1305092573165894e-01 -8.7944066524505615e-01</leafValues></_></weakClassifiers></_>
    <!-- stage 10 -->
    <_>
      <maxWeakCount>8</maxWeakCount>
      <stageThreshold>-1.0432295799255371e+00</stageThreshold>
      <weakClassifiers>
        <_>
          <internalNodes>
            0 -1 58 1.6414973884820938e-02</internalNodes>
          <leafValues>
            -7.0552146434783936e-01 7.5391501188278198e-01</leafValues></_>
        <_>
          <internalNodes>
            0 -1 28 -1.9131898880004883e-03</internalNodes>
          <leafValues>
            5.7799553871154785e-01 -7.4907898902893066e-01</leafValues></_>
        <_>
          <internalNodes>
            0 -1 32 -7.3636965826153755e-03</internalNodes>
          <leafValues>
            5.0987565517425537e-01 -7.4928742647171021e-01</leafValues></_>
        <_>
          <internalNodes>
            0 -1 4 -1.5104492194950581e-03</internalNodes>
          <leafValues>
            4.9202194809913635e-01 -6.4886730909347534e-01</leafValues></_>
        <_>
          <internalNodes>
            0 -1 86 3.7495018914341927e-03</internalNodes>
          <leafValues>
            -6.9053930044174194e-01 4.0246674418449402e-01</leafValues></_>
        <_>
          <internalNodes>
            0 -1 2 -3.7179631181061268e-03</internalNodes>
          <leafValues>
            4.2952921986579895e-01 -5.7986378669738770e-01</leafValues></_>
        <_>
          <internalNodes>
            0 -1 75 -2.3901411332190037e-03</internalNodes>
          <leafValues>
            4.0231379866600037e-01 -6.3412171602249146e-01</leafValues></_>
        <_>
          <internalNodes>
            0 -1 14 5.8910739608108997e-03</internalNodes>
          <leafValues>
            -8.8344019651412964e-01 2.3669357597827911e-01</leafValues></_></weakClassifiers></_>
    <!-- stage 11 -->
    <_>
      <maxWeakCount>5</maxWeakCount>
      <stageThreshold>-7.1106487512588501e-01</stageThreshold>
      <weakClassifiers>
        <_>
          <internalNodes>
            0 -1 37 7.6436123345047235e-04</internalNodes>
          <leafValues>
            7.7177178859710693e-01 -7.6744186878204346e-01</leafValues></_>
        <_>
          <internalNodes>
            0 -1 83 2.2793993353843689e-02</internalNodes>
          <leafValues>
            -6.0337764024734497e-01 5.7222282886505127e-01</leafValues></_>
        <_>
          <internalNodes>
            0 -1 73 3.7801254075020552e-04</internalNodes>
          <leafValues>
            3.9641088247299194e-01 -8.7060105800628662e-01</leafValues></_>
        <_>
          <internalNodes>
            0 -1 22 2.9780461918562651e-03</internalNodes>
          <leafValues>
            -8.5189437866210938e-01 2.2578333318233490e-01</leafValues></_>
        <_>
          <internalNodes>
            0 -1 0 -1.8566429615020752e-02</internalNodes>
          <leafValues>
            6.8269187211990356e-01 -4.2397555708885193e-01</leafValues></_></weakClassifiers></_>
    <!-- stage 12 -->
    <_>
      <maxWeakCount>8</maxWeakCount>
      <stageThreshold>-9.7966951131820679e-01</stageThreshold>
      <weakClassifiers>
        <_>
          <internalNodes>
            0 -1 29 4.4051897712051868e-03</internalNodes>
          <leafValues>
            -6.9032257795333862e-01 7.4351370334625244e-01</leafValues></_>
        <_>
          <internalNodes>
            0 -1 38 5.5017393082380295e-02</internalNodes>
          <leafValues>
            -3.8744491338729858e-01 6.3228780031204224e-01</leafValues></_>
        <_>
          <internalNodes>
            0 -1 11 -1.0567935183644295e-02</internalNodes>
          <leafValues>
            3.4742593765258789e-01 -8.8464599847793579e-01</leafValues></_>
        <_>
          <internalNodes>
            0 -1 72 1.3774198479950428e-02</internalNodes>
          <leafValues>
            -7.3472499847412109e-01 2.9933860898017883e-01</leafValues></_>
        <_>
          <internalNodes>
            0 -1 59 3.6179224844090641e-04</internalNodes>
          <leafValues>
            2.6066663861274719e-01 -8.7827736139297485e-01</leafValues></_>
        <_>
          <internalNodes>
            0 -1 53 1.9029537215828896e-03</internalNodes>
          <leafValues>
            -6.6577076911926270e-01 3.0503752827644348e-01</leafValues></_>
        <_>
          <internalNodes>
            0 -1 41 2.1723955869674683e-02</internalNodes>
          <leafValues>
            -3.4030026197433472e-01 7.5973308086395264e-01</leafValues></_>
        <_>
          <internalNodes>
            0 -1 49 4.9238174688071012e-04</internalNodes>
          <leafValues>
            -5.7358771562576294e-01 4.5800143480300903e-01</leafValues></_></weakClassifiers></_>
    <!-- stage 13 -->
    <_>
      <maxWeakCount>8</maxWeakCount>
      <stageThreshold>-4.6983852982521057e-01</stageThreshold>
      <weakClassifiers>
        <_>
          <internalNodes>
            0 -1 54 -7.5495522469282150e-04</internalNodes>
          <leafValues>
            -9.3548387289047241e-01 7.3333334922790527e-01</leafValues></_>
        <_>
          <internalNodes>
            0 -1 46 4.0263524278998375e-03</internalNodes>
          <leafValues>
            -3.7512582540512085e-01 7.7873092889785767e-01</leafValues></_>
        <_>
          <internalNodes>
            0 -1 5 -1.1529418826103210e-01</internalNodes>
          <leafValues>
            5.0917005538940430e-01 -5.0137811899185181e-01</leafValues></_>
        <_>
          <internalNodes>
            0 -1 62 9.2203950043767691e-04</internalNodes>
          <leafValues>
            -7.5598746538162231e-01 3.7459918856620789e-01</leafValues></_>
        <_>
          <internalNodes>
            0 -1 70 1.1622225865721703e-03</internalNodes>
          <leafValues>
            -6.6806155443191528e-01 3.2544162869453430e-01</leafValues></_>
        <_>
          <internalNodes>
            0 -1 50 1.0807025246322155e-03</internalNodes>
          <leafValues>
            2.9274934530258179e-01 -7.8955817222595215e-01</leafValues></_>
        <_>
          <internalNodes>
            0 -1 10 1.1709803715348244e-02</internalNodes>
          <leafValues>
            -3.8976567983627319e-01 6.1562275886535645e-01</leafValues></_>
        <_>
          <internalNodes>
            0 -1 64 -2.7918084524571896e-03</internalNodes>
          <leafValues>
            -9.1683357954025269e-01 2.7265360951423645e-01</leafValues></_></weakClassifiers></_>
    <!-- stage 14 -->
    <_>
      <maxWeakCount>7</maxWeakCount>
      <stageThreshold>-8.3735811710357666e-01</stageThreshold>
      <weakClassifiers>
        <_>
          <internalNodes>
            0 -1 15 7.0300619117915630e-03</internalNodes>
          <leafValues>
            7.4298375844955444e-01 -7.3333334922790527e-01</leafValues></_>
        <_>
          <internalNodes>
            0 -1 33 1.2531461194157600e-02</internalNodes>
          <leafValues>
            -6.6569894552230835e-01 6.1000251770019531e-01</leafValues></_>
        <_>
          <internalNodes>
            0 -1 61 1.2965448200702667e-02</internalNodes>
          <leafValues>
            -3.5282877087593079e-01 7.5101166963577271e-01</leafValues></_>
        <_>
          <internalNodes>
            0 -1 80 7.8934110933914781e-04</internalNodes>
          <leafValues>
            -5.7349884510040283e-01 5.6695580482482910e-01</leafValues></_>
        <_>
          <internalNodes>
            0 -1 85 4.0049524977803230e-03</internalNodes>
          <leafValues>
            -8.2792639732360840e-01 2.9229053854942322e-01</leafValues></_>
        <_>
          <internalNodes>
            0 -1 6 3.4047767519950867e-02</internalNodes>
          <leafValues>
            3.2362157106399536e-01 -8.5820752382278442e-01</leafValues></_>
        <_>
          <internalNodes>
            0 -1 24 -1.2642481364309788e-02</internalNodes>
          <leafValues>
            4.6093198657035828e-01 -6.0422742366790771e-01</leafValues></_></weakClassifiers></_>
    <!-- stage 15 -->
    <_>
      <maxWeakCount>8</maxWeakCount>
      <stageThreshold>-2.9022446274757385e-01</stageThreshold>
      <weakClassifiers>
        <_>
          <internalNodes>
            0 -1 57 9.3052126467227936e-03</internalNodes>
          <leafValues>
            -7.2677594423294067e-01 7.7895534038543701e-01</leafValues></_>
        <_>
          <internalNodes>
            0 -1 36 2.4881568970158696e-04</internalNodes>
          <leafValues>
            6.2098640203475952e-01 -8.1452882289886475e-01</leafValues></_>
        <_>
          <internalNodes>
            0 -1 84 -1.2629538774490356e-02</internalNodes>
          <leafValues>
            6.9757491350173950e-01 -6.9711846113204956e-01</leafValues></_>
        <_>
          <internalNodes>
            0 -1 42 3.8096648640930653e-03</internalNodes>
          <leafValues>
            5.4983723163604736e-01 -7.3951971530914307e-01</leafValues></_>
        <_>
          <internalNodes>
            0 -1 79 -2.3747850209474564e-02</internalNodes>
          <leafValues>
            8.2202106714248657e-01 -4.5181632041931152e-01</leafValues></_>
        <_>
          <internalNodes>
            0 -1 7 7.6851554214954376e-02</internalNodes>
          <leafValues>
            5.2810239791870117e-01 -8.1706821918487549e-01</leafValues></_>
        <_>
          <internalNodes>
            0 -1 68 3.5243597812950611e-04</internalNodes>
          <leafValues>
            3.6826547980308533e-01 -8.8584977388381958e-01</leafValues></_>
        <_>
          <internalNodes>
            0 -1 39 8.2526132464408875e-03</internalNodes>
          <leafValues>
            -4.8170527815818787e-01 9.3099784851074219e-01</leafValues></_></weakClassifiers></_></stages>
  <features>
    <_>
      <rects>
        <_>
          0 0 4 18 -1.</_>
        <_>
          2 0 2 18 2.</_></rects>
      <tilted>0</tilted></_>
    <_>
      <rects>
        <_>
          0 1 4 17 -1.</_>
        <_>
          2 1 2 17 2.</_></rects>
      <tilted>0</tilted></_>
    <_>
      <rects>
        <_>
          0 1 4 16 -1.</_>
        <_>
          0 5 4 8 2.</_></rects>
      <tilted>0</tilted></_>
    <_>
      <rects>
        <_>
          0 3 2 13 -1.</_>
        <_>
          1 3 1 13 2.</_></rects>
      <tilted>0</tilted></_>
    <_>
      <rects>
        <_>
          0 4 2 14 -1.</_>
        <_>
          1 4 1 14 2.</_></rects>
      <tilted>0</tilted></_>
    <_>
      <rects>
        <_>
          0 6 22 12 -1.</_>
        <_>
          0 6 11 6 2.</_>
        <_>
          11 12 11 6 2.</_></rects>
      <tilted>0</tilted></_>
    <_>
      <rects>
        <_>
          0 13 14 4 -1.</_>
        <_>
          7 13 7 4 2.</_></rects>
      <tilted>0</tilted></_>
    <_>
      <rects>
        <_>
          3 0 21 6 -1.</_>
        <_>
          10 0 7 6 3.</_></rects>
      <tilted>0</tilted></_>
    <_>
      <rects>
        <_>
          3 1 2 3 -1.</_>
        <_>
          3 1 1 3 2.</_></rects>
      <tilted>1</tilted></_>
    <_>
      <rects>
        <_>
          3 13 18 4 -1.</_>
        <_>
          3 13 9 2 2.</_>
        <_>
          12 15 9 2 2.</_></rects>
      <tilted>0</tilted></_>
    <_>
      <rects>
        <_>
          3 16 29 2 -1.</_>
        <_>
          3 17 29 1 2.</_></rects>
      <tilted>0</tilted></_>
    <_>
      <rects>
        <_>
          4 5 12 10 -1.</_>
        <_>
          7 5 6 10 2.</_></rects>
      <tilted>0</tilted></_>
    <_>
      <rects>
        <_>
          6 0 10 12 -1.</_>
        <_>
          6 0 5 6 2.</_>
        <_>
          11 6 5 6 2.</_></rects>
      <tilted>0</tilted></_>
    <_>
      <rects>
        <_>
          6 6 21 1 -1.</_>
        <_>
          13 6 7 1 3.</_></rects>
      <tilted>0</tilted></_>
    <_>
      <rects>
        <_>
          6 8 18 2 -1.</_>
        <_>
          15 8 9 2 2.</_></rects>
      <tilted>0</tilted></_>
    <_>
      <rects>
        <_>
          7 0 6 10 -1.</_>
        <_>
          9 0 2 10 3.</_></rects>
      <tilted>0</tilted></_>
    <_>
      <rects>
        <_>
          7 6 20 7 -1.</_>
        <_>
          12 6 10 7 2.</_></rects>
      <tilted>0</tilted></_>
    <_>
      <rects>
        <_>
          7 16 21 2 -1.</_>
        <_>
          7 17 21 1 2.</_></rects>
      <tilted>0</tilted></_>
    <_>
      <rects>
        <_>
          9 0 4 12 -1.</_>
        <_>
          9 0 2 6 2.</_>
        <_>
          11 6 2 6 2.</_></rects>
      <tilted>0</tilted></_>
    <_>
      <rects>
        <_>
          9 5 15 1 -1.</_>
        <_>
          14 5 5 1 3.</_></rects>
      <tilted>0</tilted></_>
    <_>
      <rects>
        <_>
          9 7 9 4 -1.</_>
        <_>
          12 7 3 4 3.</_></rects>
      <tilted>0</tilted></_>
    <_>
      <rects>
        <_>
          9 7 16 3 -1.</_>
        <_>
          13 7 8 3 2.</_></rects>
      <tilted>0</tilted></_>
    <_>
      <rects>
        <_>
          9 11 9 1 -1.</_>
        <_>
          12 11 3 1 3.</_></rects>
      <tilted>0</tilted></_>
    <_>
      <rects>
        <_>
          10 0 8 12 -1.</_>
        <_>
          12 0 4 12 2.</_></rects>
      <tilted>0</tilted></_>
    <_>
      <rects>
        <_>
          10 0 5 8 -1.</_>
        <_>
          10 2 5 4 2.</_></rects>
      <tilted>0</tilted></_>
    <_>
      <rects>
        <_>
          10 7 3 5 -1.</_>
        <_>
          11 7 1 5 3.</_></rects>
      <tilted>0</tilted></_>
    <_>
      <rects>
        <_>
          10 8 6 4 -1.</_>
        <_>
          9 9 6 2 2.</_></rects>
      <tilted>1</tilted></_>
    <_>
      <rects>
        <_>
          11 4 4 1 -1.</_>
        <_>
          11 4 2 1 2.</_></rects>
      <tilted>1</tilted></_>
    <_>
      <rects>
        <_>
          11 4 6 6 -1.</_>
        <_>
          11 4 3 3 2.</_>
        <_>
          14 7 3 3 2.</_></rects>
      <tilted>0</tilted></_>
    <_>
      <rects>
        <_>
          11 4 9 8 -1.</_>
        <_>
          11 6 9 4 2.</_></rects>
      <tilted>0</tilted></_>
    <_>
      <rects>
        <_>
          11 5 11 8 -1.</_>
        <_>
          11 9 11 4 2.</_></rects>
      <tilted>0</tilted></_>
    <_>
      <rects>
        <_>
          11 9 4 2 -1.</_>
        <_>
          11 9 4 1 2.</_></rects>
      <tilted>1</tilted></_>
    <_>
      <rects>
        <_>
          11 9 5 4 -1.</_>
        <_>
          10 10 5 2 2.</_></rects>
      <tilted>1</tilted></_>
    <_>
      <rects>
        <_>
          12 3 7 6 -1.</_>
        <_>
          10 5 7 2 3.</_></rects>
      <tilted>1</tilted></_>
    <_>
      <rects>
        <_>
          12 3 10 9 -1.</_>
        <_>
          12 6 10 3 3.</_></rects>
      <tilted>0</tilted></_>
    <_>
      <rects>
        <_>
          12 7 12 3 -1.</_>
        <_>
          18 7 6 3 2.</_></rects>
      <tilted>0</tilted></_>
    <_>
      <rects>
        <_>
          12 9 2 1 -1.</_>
        <_>
          13 9 1 1 2.</_></rects>
      <tilted>0</tilted></_>
    <_>
      <rects>
        <_>
          12 9 8 1 -1.</_>
        <_>
          16 9 4 1 2.</_></rects>
      <tilted>0</tilted></_>
    <_>
      <rects>
        <_>
          12 11 20 6 -1.</_>
        <_>
          12 11 10 3 2.</_>
        <_>
          22 14 10 3 2.</_></rects>
      <tilted>0</tilted></_>
    <_>
      <rects>
        <_>
          12 14 8 2 -1.</_>
        <_>
          14 14 4 2 2.</_></rects>
      <tilted>0</tilted></_>
    <_>
      <rects>
        <_>
          13 0 4 6 -1.</_>
        <_>
          14 1 2 6 2.</_></rects>
      <tilted>1</tilted></_>
    <_>
      <rects>
        <_>
          13 2 7 6 -1.</_>
        <_>
          13 4 7 2 3.</_></rects>
      <tilted>0</tilted></_>
    <_>
      <rects>
        <_>
          13 4 9 2 -1.</_>
        <_>
          13 4 9 1 2.</_></rects>
      <tilted>1</tilted></_>
    <_>
      <rects>
        <_>
          13 6 6 7 -1.</_>
        <_>
          15 6 2 7 3.</_></rects>
      <tilted>0</tilted></_>
    <_>
      <rects>
        <_>
          13 6 6 7 -1.</_>
        <_>
          16 6 3 7 2.</_></rects>
      <tilted>0</tilted></_>
    <_>
      <rects>
        <_>
          13 9 6 3 -1.</_>
        <_>
          15 10 2 1 9.</_></rects>
      <tilted>0</tilted></_>
    <_>
      <rects>
        <_>
          13 9 2 3 -1.</_>
        <_>
          12 10 2 1 3.</_></rects>
      <tilted>1</tilted></_>
    <_>
      <rects>
        <_>
          13 11 8 1 -1.</_>
        <_>
          17 11 4 1 2.</_></rects>
      <tilted>0</tilted></_>
    <_>
      <rects>
        <_>
          13 11 9 6 -1.</_>
        <_>
          13 14 9 3 2.</_></rects>
      <tilted>0</tilted></_>
    <_>
      <rects>
        <_>
          14 0 2 6 -1.</_>
        <_>
          14 0 1 6 2.</_></rects>
      <tilted>1</tilted></_>
    <_>
      <rects>
        <_>
          14 5 4 8 -1.</_>
        <_>
          14 5 2 4 2.</_>
        <_>
          16 9 2 4 2.</_></rects>
      <tilted>0</tilted></_>
    <_>
      <rects>
        <_>
          14 7 4 1 -1.</_>
        <_>
          15 8 2 1 2.</_></rects>
      <tilted>1</tilted></_>
    <_>
      <rects>
        <_>
          14 7 6 3 -1.</_>
        <_>
          16 8 2 1 9.</_></rects>
      <tilted>0</tilted></_>
    <_>
      <rects>
        <_>
          14 7 9 6 -1.</_>
        <_>
          14 9 9 2 3.</_></rects>
      <tilted>0</tilted></_>
    <_>
      <rects>
        <_>
          14 11 6 1 -1.</_>
        <_>
          17 11 3 1 2.</_></rects>
      <tilted>0</tilted></_>
    <_>
      <rects>
        <_>
          15 5 6 1 -1.</_>
        <_>
          15 5 3 1 2.</_></rects>
      <tilted>1</tilted></_>
    <_>
      <rects>
        <_>
          15 5 8 1 -1.</_>
        <_>
          15 5 4 1 2.</_></rects>
      <tilted>1</tilted></_>
    <_>
      <rects>
        <_>
          15 6 9 4 -1.</_>
        <_>
          18 6 3 4 3.</_></rects>
      <tilted>0</tilted></_>
    <_>
      <rects>
        <_>
          15 6 9 6 -1.</_>
        <_>
          18 6 3 6 3.</_></rects>
      <tilted>0</tilted></_>
    <_>
      <rects>
        <_>
          15 9 1 2 -1.</_>
        <_>
          15 9 1 1 2.</_></rects>
      <tilted>1</tilted></_>
    <_>
      <rects>
        <_>
          15 13 4 4 -1.</_>
        <_>
          15 14 4 2 2.</_></rects>
      <tilted>0</tilted></_>
    <_>
      <rects>
        <_>
          15 14 8 4 -1.</_>
        <_>
          15 14 4 2 2.</_>
        <_>
          19 16 4 2 2.</_></rects>
      <tilted>0</tilted></_>
    <_>
      <rects>
        <_>
          16 4 6 6 -1.</_>
        <_>
          16 4 3 3 2.</_>
        <_>
          19 7 3 3 2.</_></rects>
      <tilted>0</tilted></_>
    <_>
      <rects>
        <_>
          16 5 6 6 -1.</_>
        <_>
          16 5 3 3 2.</_>
        <_>
          19 8 3 3 2.</_></rects>
      <tilted>0</tilted></_>
    <_>
      <rects>
        <_>
          16 5 5 4 -1.</_>
        <_>
          16 5 5 2 2.</_></rects>
      <tilted>1</tilted></_>
    <_>
      <rects>
        <_>
          16 6 4 5 -1.</_>
        <_>
          18 6 2 5 2.</_></rects>
      <tilted>0</tilted></_>
    <_>
      <rects>
        <_>
          16 6 8 7 -1.</_>
        <_>
          20 6 4 7 2.</_></rects>
      <tilted>0</tilted></_>
    <_>
      <rects>
        <_>
          16 7 3 6 -1.</_>
        <_>
          14 9 3 2 3.</_></rects>
      <tilted>1</tilted></_>
    <_>
      <rects>
        <_>
          16 9 4 2 -1.</_>
        <_>
          17 9 2 2 2.</_></rects>
      <tilted>0</tilted></_>
    <_>
      <rects>
        <_>
          16 9 6 6 -1.</_>
        <_>
          16 9 3 3 2.</_>
        <_>
          19 12 3 3 2.</_></rects>
      <tilted>0</tilted></_>
    <_>
      <rects>
        <_>
          16 11 6 3 -1.</_>
        <_>
          18 11 2 3 3.</_></rects>
      <tilted>0</tilted></_>
    <_>
      <rects>
        <_>
          17 8 6 2 -1.</_>
        <_>
          19 10 2 2 3.</_></rects>
      <tilted>1</tilted></_>
    <_>
      <rects>
        <_>
          18 6 6 6 -1.</_>
        <_>
          20 8 2 2 9.</_></rects>
      <tilted>0</tilted></_>
    <_>
      <rects>
        <_>
          18 6 4 2 -1.</_>
        <_>
          18 6 4 1 2.</_></rects>
      <tilted>1</tilted></_>
    <_>
      <rects>
        <_>
          18 7 2 2 -1.</_>
        <_>
          18 7 1 2 2.</_></rects>
      <tilted>1</tilted></_>
    <_>
      <rects>
        <_>
          19 2 6 5 -1.</_>
        <_>
          21 2 2 5 3.</_></rects>
      <tilted>0</tilted></_>
    <_>
      <rects>
        <_>
          19 6 3 8 -1.</_>
        <_>
          19 6 3 4 2.</_></rects>
      <tilted>1</tilted></_>
    <_>
      <rects>
        <_>
          19 7 4 5 -1.</_>
        <_>
          20 7 2 5 2.</_></rects>
      <tilted>0</tilted></_>
    <_>
      <rects>
        <_>
          19 9 6 8 -1.</_>
        <_>
          19 9 3 4 2.</_>
        <_>
          22 13 3 4 2.</_></rects>
      <tilted>0</tilted></_>
    <_>
      <rects>
        <_>
          20 0 4 12 -1.</_>
        <_>
          20 0 2 6 2.</_>
        <_>
          22 6 2 6 2.</_></rects>
      <tilted>0</tilted></_>
    <_>
      <rects>
        <_>
          21 0 5 2 -1.</_>
        <_>
          21 0 5 1 2.</_></rects>
      <tilted>1</tilted></_>
    <_>
      <rects>
        <_>
          21 0 6 4 -1.</_>
        <_>
          20 1 6 2 2.</_></rects>
      <tilted>1</tilted></_>
    <_>
      <rects>
        <_>
          21 0 7 4 -1.</_>
        <_>
          20 1 7 2 2.</_></rects>
      <tilted>1</tilted></_>
    <_>
      <rects>
        <_>
          21 3 4 6 -1.</_>
        <_>
          19 5 4 2 3.</_></rects>
      <tilted>1</tilted></_>
    <_>
      <rects>
        <_>
          21 10 6 2 -1.</_>
        <_>
          23 12 2 2 3.</_></rects>
      <tilted>1</tilted></_>
    <_>
      <rects>
        <_>
          22 1 6 8 -1.</_>
        <_>
          22 1 3 8 2.</_></rects>
      <tilted>1</tilted></_>
    <_>
      <rects>
        <_>
          22 7 3 7 -1.</_>
        <_>
          23 8 1 7 3.</_></rects>
      <tilted>1</tilted></_>
    <_>
      <rects>
        <_>
          23 0 8 6 -1.</_>
        <_>
          21 2 8 2 3.</_></rects>
      <tilted>1</tilted></_>
    <_>
      <rects>
        <_>
          23 5 2 4 -1.</_>
        <_>
          23 5 2 2 2.</_></rects>
      <tilted>1</tilted></_>
    <_>
      <rects>
        <_>
          23 7 6 5 -1.</_>
        <_>
          25 9 2 5 3.</_></rects>
      <tilted>1</tilted></_>
    <_>
      <rects>
        <_>
          23 9 4 5 -1.</_>
        <_>
          24 10 2 5 2.</_></rects>
      <tilted>1</tilted></_></features></cascade>
</opencv_storage>
